0.33443004 -0.01118974 0.6909766 0.09549386 -0.13491994 0.072508365 -0.19059415 -0.17448294 0.102898575 0.06266486 0.18291363 0.068589136 0.20646936 0.22774036 0.03883554 0.022226913 0.54956186 0.28979224 -0.2242677 -0.16200529 -0.16621222 0.25337452 -0.0544805 0.27798906 0.2680669 -0.1797097 0.2174128 0.31763837 -0.12869442 0.069208674 -0.06914457 0.001640004 0.017407741 -0.13691863 0.09661155 0.2213072 -0.16000196 -0.033095688 0.23934184 -0.012045093 0.20151576 0.031132475 -0.1056417 0.016276125 -0.083516195 0.05370908 0.05639671 0.21613829 0.28457773 -0.049374428 0.32830286 0.11032845 0.034168474 0.10787268 0.27616182 0.0071787825 -0.01870452 0.1368067 0.24565585 0.26284248 0.27593926 0.04692881 -0.009691749 0.21594332 0.2477611 -0.0115918 0.14947386 0.2734894 0.044354517 -0.026579248 0.07488278 0.08091526 0.28127435 -0.03409276 0.12954007 -0.17207877 -0.04833353 0.15022416 -0.071858145 0.32059696 7.9262437E-4 -0.23128955 0.050421603 0.052938722 0.13778734 0.29984412 0.15716578 0.42652628 0.26081043 0.21288076 0.17483969 0.47027367 0.077454835 0.1765139 -0.1373366 0.17000839 0.25679147 0.15283188 -0.037835248 0.39414218 -0.23654157 0.033141613 0.016079403 0.3291139 0.5030451 0.18920837 0.05620713 0.24739276 0.25019485 0.2615304