0.16890104 0.06201187 0.1778656 -0.16127498 -0.110958576 0.05798289 0.063667186 -0.16718598 -0.07845125 -0.10492582 0.15189397 -0.10969491 0.14908811 0.1760088 -0.111871056 0.034232225 -0.019210737 0.1716673 -0.110470116 0.075654425 0.038023856 0.27394214 0.33414897 0.22324426 0.04095338 -0.07765538 0.02554572 0.10296673 0.46738896 -0.054688867 -0.06856495 0.01978861 0.17836323 0.33403224 0.088391945 0.10341791 0.151532 -0.027281016 0.30275992 0.22224142 -0.028854622 -0.014600617 -0.13579915 0.17049435 -0.23257335 0.28471872 -0.035703495 0.23969342 0.15092957 -0.09069212 0.13143307 0.14915912 0.008490818 0.068499155 0.078591086 -0.15614869 0.2523274 -0.1377998 -0.1246603 0.22520119 0.015853608 0.20005861 0.114896595 0.22545098 0.101010755 0.020070363 0.17438954 -0.0026303288 -0.44936606 0.3548037 0.14567953 -0.043677174 0.024012052 0.21245582 -0.096044146 -0.18896794 -0.03248211 0.23616451 -0.08781272 0.10301752 0.44602197 -0.08811737 0.008472489 0.12162907 0.24022363 0.074973084 0.23537643 0.063223734 0.3571294 0.28999364 -0.1871681 0.036087614 -0.07513733 0.2222481 0.02889759 0.019452339 0.14519057 0.23608898 0.09225123 0.24312685 -0.04308205 0.16435415 0.040308062 0.33559665 0.14526634 0.2906849 0.19422187 0.016494008 -0.004951683 -0.03440695 0.18025215 0.050020795 0.0290842 0.0896609 0.1668403 -0.036920417 0.1371289 0.52733326 0.049772333 0.40277895 0.07243421 -0.050887447 0.18942022 0.061433546 -0.035870057 0.39395487 -0.09709656 -0.09217393 0.15698078 0.1691629 0.20008057 0.34111723 0.10946541 0.18427864 0.43004024 -0.02194737 0.4813349 0.10483874 -0.05191105 0.13035798 0.27604523 0.18001431 0.08745705 0.29302916 -0.0124121765 0.18669692 0.0707503 0.2225688 0.008550815 0.35973015