0.10235836 0.1070423 0.11773421 0.08681885 -0.2613524 0.27463713 0.28068542 0.13035333 0.20076302 0.13662016 0.2259759 -0.014791216 0.3158149 -0.51559967 -0.22095071 0.048857473 0.29565763 0.75696945 0.22391252 0.14678107 -0.52448696 0.01633236 -0.15856272 0.07234973 0.019021465 -0.041826237 0.043861683 -0.047001127 -0.020696344 0.03187513 0.26399773 -0.034784444 -0.06909311 0.23977093 -0.24199674 0.17425475 -0.25575203 -0.0032065168 0.06495429 0.15704332 -0.3799471 0.30848062 -0.1865084 0.16642886 0.2911233 0.12001505 0.18245073 -0.015571572 0.3158139 -0.40398556 -0.31660658 0.16691527 0.33808005 0.13281001 -0.11100295 0.035290264 0.20003136 -0.05669466 0.025768248 0.33302125 0.012138925 0.034751788 -0.26236662 -0.045131795 -0.104474604 0.23217553 -0.045676637 0.036741912 0.04005796 0.07513364 0.1700005 0.046666414 0.5294342 0.21532738 0.13140574 -0.39771134 0.061807293 -0.12936588 0.42508933 0.26042017 -0.12490253 -0.2871286 -0.2479697 -0.337562 0.12723695 0.43078306 0.12912938 0.41339207 0.14092691 0.59929055 -0.34963146 0.082053356 -0.13714617 0.3739237 0.15737553 0.10793031 0.28842026 0.07291893 0.053355355 0.3438639 0.25190035 0.08627681 0.23952416 0.18536472 0.014369415 0.077634685 -0.044780564 0.13965774 -0.14047727 0.11793484 -0.07446836 -0.082494676 0.36171317 0.08994215 0.19292049 0.16112266 -0.005169969 -0.31705195 -0.3453878 0.35059637 0.32224488 0.19863677 0.25661352 0.13028315 0.20706396 0.3681404 0.19689682 8.651917E-4 0.34257257 -0.31457725 -0.19351324 -0.49240556 0.13353355 0.045802534 0.0066048843 -0.062553376 0.10668351 0.22540547 0.17750591 -0.17419137 0.1862215 0.21704628 0.1753621 0.3002494 0.18461825 0.25460485 0.20390533 0.053514734 0.0029819626 0.35935053 0.24901935 0.26560614 0.025391566 0.076346315 0.11274818 0.15510046 0.037530765 0.06693109 0.4358364 -0.13542917 0.29459864 0.33229318 0.11247151 -0.07071644 0.11110616 0.30983722 0.22421439 0.02850708 -0.109886326 -0.016272759 0.08182024 0.12575099 0.21909453 0.39778277 0.20530628 0.22417977 -0.019959629 0.019071573 -0.058637284 0.12518068 -0.39588508 0.03275299 0.42125452 -0.10436903 0.33260426 -0.28756434 0.19401069 -0.085664004 0.05531099 0.19951563 -0.119382575 0.0429777 0.18634294 -0.16264926 0.3818915 0.09678314 0.14077577 -0.04933941 0.21273729 -0.7571057 0.11768844 0.06743432 0.03489136 0.1274415 -0.022400068 0.017025437 -0.030754693 0.38228604 -0.10993927 -0.23818538 -0.44181702 0.19589296 0.11488251 0.23959851 0.08580062 0.48531833 -0.11264624 -0.2854733 0.16275837 0.089740574 -0.119034365 0.26404464 -0.36712828 -0.036892407 0.1418798 0.19443749 0.14482078 -0.03050611 -0.2894054 0.14083405 0.050991572 0.24353929 0.31480527 -0.019920956 -0.18240756 0.05432137 4.623681E-4 0.26066813 0.35325205 0.21343029 -0.004767007 0.009707052 -0.089127116 -0.3047208 0.31825355 0.18784034 -0.40212765 0.1641419 -0.07929402 0.17410237 -0.10980017 -0.19666873 -0.2567684 0.285405 0.14310427 0.101605296 0.07935048 0.12016578 0.14211315 0.16276513 0.042513277 -0.015213489 -0.36518356 -0.12291269 0.24359883 -0.07174553 0.38932267 -0.08239004 0.05805809 0.0804569 0.0036895121 0.21661681 -0.18091972 0.21575406 -0.13113874 -0.71523535 0.15334076 -0.13553372 0.23761879 0.23861802 0.13928701 -0.001982403 -0.16145054 0.08585591 0.24905649 0.01391917 -0.15325564 0.26598263 0.28085208 0.13579106 0.19836923 0.06541545 0.017722975 0.097764336 0.32717288 0.021142624 -0.12613413 -0.078085326 0.11920012 0.3908323